<?xml version="1.0"?>
<opencv_storage>
<cascade>
  <stageType>BOOST</stageType>
  <featureType>HAAR</featureType>
  <height>20</height>
  <width>20</width>
  <stageParams>
    <boostType>GAB</boostType>
    <minHitRate>9.9500000476837158e-01</minHitRate>
    <maxFalseAlarm>1.0000000149011612e-01</maxFalseAlarm>
    <weightTrimRate>9.4999999999999996e-01</weightTrimRate>
    <maxDepth>1</maxDepth>
    <maxWeakCount>100</maxWeakCount></stageParams>
  <featureParams>
    <maxCatCount>0</maxCatCount>
    <featSize>1</featSize>
    <mode>BASIC</mode></featureParams>
  <stageNum>3</stageNum>
  <stages>
    <!-- stage 0 -->
    <_>
      <maxWeakCount>2</maxWeakCount>
      <stageThreshold>-1.5782751142978668e-02</stageThreshold>
      <weakClassifiers>
        <_>
          <internalNodes>
            0 -1 3 5.0771035254001617e-02</internalNodes>
          <leafValues>
            -9.5959597826004028e-01 9.7014927864074707e-01</leafValues></_>
        <_>
          <internalNodes>
            0 -1 1 1.7133411765098572e-01</internalNodes>
          <leafValues>
            -9.6517133712768555e-01 9.4381320476531982e-01</leafValues></_></weakClassifiers></_>
    <!-- stage 1 -->
    <_>
      <maxWeakCount>2</maxWeakCount>
      <stageThreshold>1.7561295032501221e+00</stageThreshold>
      <weakClassifiers>
        <_>
          <internalNodes>
            0 -1 0 2.0428547263145447e-01</internalNodes>
          <leafValues>
            -1. 8.9573460817337036e-01</leafValues></_>
        <_>
          <internalNodes>
            0 -1 2 2.1386969834566116e-02</internalNodes>
          <leafValues>
            -1. 8.6039483547210693e-01</leafValues></_></weakClassifiers></_>
    <!-- stage 2 -->
    <_>
      <maxWeakCount>3</maxWeakCount>
      <stageThreshold>5.4856282472610474e-01</stageThreshold>
      <weakClassifiers>
        <_>
          <internalNodes>
            0 -1 6 3.3803075551986694e-02</internalNodes>
          <leafValues>
            -8.3333331346511841e-01 8.8235294818878174e-01</leafValues></_>
        <_>
          <internalNodes>
            0 -1 4 1.4582838630303741e-03</internalNodes>
          <leafValues>
            8.1321072578430176e-01 -9.7149860858917236e-01</leafValues></_>
        <_>
          <internalNodes>
            0 -1 5 6.3806116580963135e-02</internalNodes>
          <leafValues>
            -9.8934185504913330e-01 6.3770842552185059e-01</leafValues></_></weakClassifiers></_></stages>
  <features>
    <_>
      <rects>
        <_>
          1 5 18 11 -1.</_>
        <_>
          7 5 6 11 3.</_></rects>
      <tilted>0</tilted></_>
    <_>
      <rects>
        <_>
          4 5 10 15 -1.</_>
        <_>
          4 10 10 5 3.</_></rects>
      <tilted>0</tilted></_>
    <_>
      <rects>
        <_>
          5 3 10 4 -1.</_>
        <_>
          5 5 10 2 2.</_></rects>
      <tilted>0</tilted></_>
    <_>
      <rects>
        <_>
          5 4 2 15 -1.</_>
        <_>
          5 9 2 5 3.</_></rects>
      <tilted>0</tilted></_>
    <_>
      <rects>
        <_>
          5 10 9 4 -1.</_>
        <_>
          8 10 3 4 3.</_></rects>
      <tilted>0</tilted></_>
    <_>
      <rects>
        <_>
          6 5 8 10 -1.</_>
        <_>
          6 10 8 5 2.</_></rects>
      <tilted>0</tilted></_>
    <_>
      <rects>
        <_>
          6 12 8 6 -1.</_>
        <_>
          6 14 8 2 3.</_></rects>
      <tilted>0</tilted></_></features></cascade>
</opencv_storage>
